2.872849069535732269e-02
4.338519647717475891e-02
-2.510233782231807709e-02
-2.873421646654605865e-02
4.821051843464374542e-03
5.064108408987522125e-03
3.438942879438400269e-02
-4.112373292446136475e-02
9.485578164458274841e-03
3.441799432039260864e-02
-5.888930708169937134e-02
-1.036471966654062271e-02
-4.908146336674690247e-02
-4.519070498645305634e-03
-6.789565831422805786e-02
-2.795921638607978821e-02
1.148125156760215759e-02
-7.938604056835174561e-02
-6.887299567461013794e-02
-5.227154493331909180e-02
1.466684415936470032e-02
5.296037532389163971e-03
-9.193494170904159546e-02
-2.831389755010604858e-02
-6.733848899602890015e-02
-5.843179672956466675e-02
3.211041539907455444e-02
9.648631326854228973e-03
-4.284521192312240601e-02
-2.273974195122718811e-02
-3.074951469898223877e-02
-3.787170723080635071e-02
-6.707779318094253540e-02
-7.604715228080749512e-02
7.283870596438646317e-03
-2.258315868675708771e-02
-2.902006730437278748e-03
-5.733045935630798340e-02
-8.604270406067371368e-03
-3.486498259007930756e-03
-2.080687507987022400e-02
-3.553838282823562622e-02
1.629022881388664246e-02
-4.502281174063682556e-02
-2.867152914404869080e-02
3.983160108327865601e-02
3.796796873211860657e-02
-5.811341479420661926e-02
1.572383940219879150e-02
-2.938561886548995972e-02
-5.450832098722457886e-02
1.437618955969810486e-02
-7.247035950422286987e-02
5.949087906628847122e-03
5.269427597522735596e-02
-5.899195745587348938e-02
-5.947340279817581177e-02
-9.633527696132659912e-02
-5.585143342614173889e-02
-9.688393026590347290e-02
-5.445702746510505676e-02
-9.988224133849143982e-03
2.097936905920505524e-02
3.972866386175155640e-02
3.450666368007659912e-02
1.750423200428485870e-02
-6.035542115569114685e-02
-8.194564282894134521e-02
-2.138305269181728363e-02
4.405092075467109680e-02
-8.254756219685077667e-03
-1.102689001709222794e-02
-1.807680167257785797e-02
-1.220644637942314148e-02
-3.841025009751319885e-02
5.127020180225372314e-02
-1.962431520223617554e-02
-5.672098696231842041e-02
1.511541195213794708e-02
1.848839223384857178e-02
1.220513787120580673e-02
1.799591258168220520e-02
3.081687912344932556e-02
-7.128304988145828247e-02
-7.607700675725936890e-02
-4.666804149746894836e-02
-9.979417175054550171e-02
-9.713482111692428589e-02
1.715500839054584503e-02
-4.744668304920196533e-02
-4.786485806107521057e-02
-3.637355938553810120e-02
-6.942234933376312256e-02
1.636791229248046875e-02
-6.385841965675354004e-02
-8.350356668233871460e-02
-9.507159143686294556e-02
-1.124450564384460449e-02
-6.178126484155654907e-02
-3.034926950931549072e-02
-3.905826434493064880e-02
-5.763855203986167908e-02
-2.884083241224288940e-02
-5.949872080236673355e-03
-8.906143903732299805e-02
-4.781165346503257751e-02
-1.045361310243606567e-01
-9.167730808258056641e-02
2.190119586884975433e-02
-3.200647234916687012e-02
2.493359521031379700e-02
-6.084244698286056519e-02
-9.812308102846145630e-02
-9.786818176507949829e-02
-2.795874141156673431e-03
-1.166043952107429504e-01
-4.146799072623252869e-02
-3.088429942727088928e-02
-2.528899535536766052e-02
-1.172790210694074631e-02
-7.649733126163482666e-02
-3.301566466689109802e-02
-1.209422051906585693e-01
-9.311821311712265015e-02
-3.222750872373580933e-02
-6.970488280057907104e-02
-3.663879260420799255e-02
-4.015427455306053162e-02
-6.773578375577926636e-02
-1.950554200448095798e-03
-5.779400095343589783e-02
-5.544108524918556213e-02
-3.848277404904365540e-02
-1.353531796485185623e-02
-1.018329635262489319e-01
-2.312152087688446045e-02
4.373190551996231079e-02
3.322286903858184814e-02
-4.712124541401863098e-02
-9.497196227312088013e-02
-1.635122485458850861e-02
5.395871587097644806e-03
-1.891327276825904846e-02
4.832927137613296509e-03
-2.088326029479503632e-02
6.426314264535903931e-02
-1.307602040469646454e-02
4.802065342664718628e-02
4.526298865675926208e-02
2.355121634900569916e-02
5.731853842735290527e-02
-4.073677584528923035e-02
-6.027871742844581604e-02
5.991822574287652969e-03
1.082621887326240540e-01
8.386801928281784058e-02
1.587777282111346722e-03
6.530236452817916870e-02
1.023290231823921204e-01
-1.490328833460807800e-02
9.282021224498748779e-02
5.281527340412139893e-02
1.836646497249603271e-01
2.501459419727325439e-01
2.512630522251129150e-01
2.060900926589965820e-01
2.123982161283493042e-01
1.898885965347290039e-01
1.707376390695571899e-01
9.455574303865432739e-02
1.462601423263549805e-01
8.545191586017608643e-02
1.663482636213302612e-01
1.623418629169464111e-01
1.418246626853942871e-01
8.125775307416915894e-02
8.709914982318878174e-02
1.701430529356002808e-01
1.430307775735855103e-01
1.285745799541473389e-01
7.396408915519714355e-02
9.730251878499984741e-02
9.786743670701980591e-02
1.500104218721389771e-01
6.575533002614974976e-02
1.356961876153945923e-01
1.356663554906845093e-01
1.780769787728786469e-02
5.682040378451347351e-02
4.519937932491302490e-02
3.816221281886100769e-02
1.079682111740112305e-01
6.580456346273422241e-02
1.197084560990333557e-01
2.490481361746788025e-02
8.838592469692230225e-02
-1.613685302436351776e-02
-1.760268770158290863e-02
3.025293722748756409e-02
9.391830116510391235e-02
8.467482030391693115e-02
-7.117119152098894119e-03
4.321972653269767761e-02
-2.111219335347414017e-03
2.973543107509613037e-02
-4.905307665467262268e-02
-4.194185882806777954e-02
7.556374371051788330e-02
-8.737451396882534027e-03
-2.292594639584422112e-03
6.509616971015930176e-02
5.051540210843086243e-02
2.785847336053848267e-02
8.575277775526046753e-02
-3.124052844941616058e-02
-5.908458307385444641e-02
2.155328635126352310e-03
5.837004631757736206e-02
6.347461044788360596e-02
1.142359748482704163e-01
5.736405774950981140e-02
7.924746721982955933e-02
2.167058363556861877e-02
7.818255573511123657e-02
5.345345661044120789e-02
2.029335312545299530e-02
8.021711558103561401e-02
4.984050616621971130e-02
1.258081644773483276e-01
3.031232021749019623e-02
5.568194016814231873e-02
1.413704305887222290e-01
-4.958837293088436127e-03
7.787197828292846680e-02
1.166213601827621460e-01
1.797516196966171265e-01
1.016635820269584656e-01
1.703838706016540527e-01
1.258179247379302979e-01
1.258239448070526123e-01
1.573562175035476685e-01
3.267755359411239624e-02
1.601353846490383148e-02
