3.244157135486602783e-02
1.041152980178594589e-02
-3.156911581754684448e-03
-8.206370286643505096e-03
-7.897759974002838135e-02
-7.633227109909057617e-02
-4.272578284144401550e-02
1.208078302443027496e-02
2.617684565484523773e-02
2.987244911491870880e-02
-4.928992316126823425e-02
-4.674312099814414978e-02
-9.293828159570693970e-02
-1.873131841421127319e-02
-9.079750627279281616e-02
-6.323062628507614136e-02
2.271628938615322113e-02
-1.060459390282630920e-02
-4.685449972748756409e-02
-7.357434183359146118e-02
-8.375932276248931885e-02
7.345904596149921417e-04
-1.197858005762100220e-01
5.118042696267366409e-03
1.301795057952404022e-02
-2.819920144975185394e-02
-3.373080864548683167e-02
2.406340278685092926e-02
-5.439597647637128830e-03
1.860043406486511230e-02
-2.672774018719792366e-03
-1.070091575384140015e-01
-1.418385002762079239e-02
-9.501591324806213379e-03
-8.181678503751754761e-02
-2.344164531677961349e-03
-7.029192149639129639e-02
-7.988590002059936523e-02
-4.682943597435951233e-02
-6.814711540937423706e-02
-8.776748180389404297e-02
-1.029730737209320068e-01
-1.608709990978240967e-02
1.739691197872161865e-02
-5.699800699949264526e-02
-7.708496600389480591e-02
-4.067715629935264587e-02
-9.878651797771453857e-02
-1.061477661132812500e-01
-8.502537757158279419e-02
-1.567400805652141571e-02
-9.759500622749328613e-02
-5.430940538644790649e-02
-7.273030281066894531e-02
-8.696316927671432495e-02
-4.630916938185691833e-02
-4.120755568146705627e-02
-5.790179967880249023e-02
-8.425481617450714111e-03
-2.250609174370765686e-02
-2.485968871042132378e-03
-1.296556834131479263e-02
-2.518737129867076874e-02
1.775482855737209320e-02
-6.356275826692581177e-02
3.594937268644571304e-03
-7.731645368039608002e-03
-7.301408052444458008e-02
-4.051502048969268799e-02
-8.085253834724426270e-02
-8.299454301595687866e-02
-1.907490938901901245e-02
1.277738902717828751e-02
-1.805643923580646515e-02
9.425123222172260284e-03
-6.853219866752624512e-02
-6.194346025586128235e-02
2.529244683682918549e-02
-7.450579851865768433e-02
3.904925426468253136e-03
5.029369518160820007e-02
3.962745517492294312e-02
4.265940282493829727e-03
-8.295895159244537354e-02
-2.448553219437599182e-02
-6.367152184247970581e-02
-5.092696100473403931e-02
2.652643062174320221e-02
-4.125158861279487610e-02
-6.895895302295684814e-02
-6.772709637880325317e-02
1.370570622384548187e-02
-3.038800135254859924e-02
2.208590134978294373e-02
-3.611779585480690002e-02
-1.010891720652580261e-01
-1.604884490370750427e-02
2.825617045164108276e-02
4.059862811118364334e-03
1.588959828950464725e-03
-7.554307579994201660e-02
-7.244189828634262085e-02
4.234068910591304302e-05
-9.567853063344955444e-02
-2.784299664199352264e-02
-4.329757764935493469e-02
-1.347910892218351364e-02
-3.741626441478729248e-02
-7.224319875240325928e-02
-5.623288080096244812e-02
1.924919150769710541e-02
-3.988634422421455383e-02
-2.411394193768501282e-02
-7.796060293912887573e-02
1.424118317663669586e-02
-5.153015255928039551e-02
-6.913211941719055176e-02
-2.142256312072277069e-02
-6.076065450906753540e-02
-6.809439510107040405e-02
-6.196187436580657959e-02
-6.460582464933395386e-02
-8.738284558057785034e-02
-2.289593219757080078e-02
-1.102572828531265259e-01
-1.553998608142137527e-02
4.004615172743797302e-02
-1.066302414983510971e-02
-4.089130833745002747e-02
-9.510689228773117065e-02
-1.414542086422443390e-02
1.644353568553924561e-02
2.234838716685771942e-02
-3.005951270461082458e-02
-1.954345032572746277e-02
6.015763059258460999e-02
6.867274176329374313e-03
-3.908628597855567932e-02
-7.899839431047439575e-02
2.863897476345300674e-03
7.700805552303791046e-03
4.185708239674568176e-02
-5.045574158430099487e-02
7.124219089746475220e-03
1.288359169848263264e-03
3.780330531299114227e-03
5.049100145697593689e-02
-5.578915402293205261e-02
4.335031285881996155e-02
3.434176743030548096e-02
-3.053330257534980774e-02
3.990787267684936523e-02
-8.973467163741588593e-03
5.859975889325141907e-02
3.313323110342025757e-02
-1.829841174185276031e-02
2.888110466301441193e-02
5.905743688344955444e-02
2.876455709338188171e-02
9.248447604477405548e-03
4.340025037527084351e-02
5.238115787506103516e-02
1.392859965562820435e-01
1.072890385985374451e-01
1.235866621136665344e-01
1.437831670045852661e-01
1.708924770355224609e-01
2.156299501657485962e-01
1.680510491132736206e-01
1.880109012126922607e-01
1.900117993354797363e-01
8.952112495899200439e-02
9.341976791620254517e-02
1.580883562564849854e-01
1.591925323009490967e-01
1.239469274878501892e-01
6.965345889329910278e-02
1.627586930990219116e-01
6.955063343048095703e-02
1.408859193325042725e-01
9.713049978017807007e-02
1.076371520757675171e-01
2.431499585509300232e-02
6.053549796342849731e-02
1.056568846106529236e-01
1.385866254568099976e-01
7.759178429841995239e-02
1.475885212421417236e-01
6.049409881234169006e-02
2.321046032011508942e-02
3.351763635873794556e-02
6.522181630134582520e-02
4.499694705009460449e-02
8.410242199897766113e-02
2.929551340639591217e-02
5.226190388202667236e-02
-1.321982359513640404e-03
9.654109179973602295e-02
2.503511868417263031e-02
-1.006180047988891602e-02
3.838504478335380554e-02
3.600798919796943665e-02
5.133815482258796692e-02
3.650310635566711426e-02
8.522475510835647583e-02
1.074453908950090408e-02
-4.804088268429040909e-03
3.025041893124580383e-02
6.298224627971649170e-02
1.030726060271263123e-01
4.189326986670494080e-02
8.991431444883346558e-02
9.750257432460784912e-02
1.118920743465423584e-02
2.581512369215488434e-02
-1.697248220443725586e-02
8.694609999656677246e-02
4.538044333457946777e-02
8.690480142831802368e-02
6.354750692844390869e-02
1.238517463207244873e-02
1.615803129971027374e-02
-8.200345560908317566e-03
5.351350642740726471e-03
4.239650443196296692e-02
8.875887095928192139e-02
1.402836591005325317e-01
3.352296352386474609e-02
7.970827072858810425e-02
1.785971410572528839e-02
8.004710078239440918e-02
9.869902580976486206e-02
6.135093048214912415e-03
1.050530076026916504e-01
9.327294677495956421e-02
1.785492897033691406e-01
1.107842922210693359e-01
1.510059535503387451e-01
1.655861586332321167e-01
8.762087672948837280e-02
9.178545325994491577e-02
1.288459748029708862e-01
2.215389348566532135e-02
