-7.204134017229080200e-02
-9.356986731290817261e-02
-9.488558769226074219e-02
-9.204733371734619141e-02
2.631733659654855728e-03
-7.052323967218399048e-02
-2.314403466880321503e-02
-1.504749432206153870e-02
-6.258450448513031006e-02
-4.818207398056983948e-02
-6.035822257399559021e-02
-5.865305662155151367e-03
-9.783481061458587646e-02
-4.164613783359527588e-03
-4.959291592240333557e-02
-1.920541375875473022e-02
-5.141350999474525452e-02
-7.360705733299255371e-02
-4.792795702815055847e-02
1.737060956656932831e-03
-7.004188001155853271e-02
-5.570153519511222839e-02
-1.991496980190277100e-02
-3.795835003256797791e-02
1.846193568781018257e-03
1.722997240722179413e-02
-3.231998160481452942e-02
3.989574313163757324e-02
-3.879936039447784424e-02
-3.987954929471015930e-02
-2.218009904026985168e-02
-2.875590138137340546e-02
-3.771547973155975342e-02
-5.786554142832756042e-02
-5.981995910406112671e-02
1.452445797622203827e-02
4.268115013837814331e-02
7.328981161117553711e-02
7.666018605232238770e-02
2.810853719711303711e-02
5.197906866669654846e-02
-6.334871053695678711e-03
4.928988963365554810e-02
-3.938856720924377441e-02
5.280506238341331482e-02
3.094470500946044922e-02
4.956424236297607422e-02
6.332131475210189819e-02
2.017495408654212952e-02
1.118656694889068604e-01
8.035579323768615723e-02
8.426322042942047119e-02
4.733877629041671753e-02
7.816928625106811523e-02
7.498556375503540039e-02
7.128980755805969238e-02
1.002502292394638062e-01
4.844785109162330627e-02
1.086864471435546875e-01
7.400528341531753540e-02
8.982121944427490234e-02
1.099695190787315369e-01
5.959042534232139587e-02
1.707226037979125977e-02
4.298145323991775513e-02
7.441449910402297974e-02
7.359966635704040527e-02
5.067807063460350037e-02
1.113938465714454651e-01
9.155283868312835693e-02
8.633624762296676636e-03
3.981994464993476868e-02
3.729068860411643982e-02
8.778521791100502014e-03
6.265002489089965820e-02
3.824098408222198486e-02
2.924672327935695648e-02
3.395523875951766968e-02
2.410177141427993774e-02
1.040532365441322327e-01
6.379108875989913940e-02
-5.589450150728225708e-02
-8.649108558893203735e-02
-7.567951083183288574e-02
-4.817485809326171875e-02
-4.985597357153892517e-02
-1.222100183367729187e-01
-1.200047507882118225e-01
-1.015248149633407593e-01
-8.680624514818191528e-02
-6.747034192085266113e-02
-5.047518759965896606e-02
-9.817949496209621429e-03
-3.182688727974891663e-02
-5.234916880726814270e-02
-8.878553658723831177e-02
-9.589388966560363770e-02
-8.940865844488143921e-02
-3.197260200977325439e-02
-2.492248266935348511e-02
1.311240717768669128e-02
-4.872228205204010010e-02
-1.754780486226081848e-02
-1.749644242227077484e-02
-9.236765094101428986e-03
3.943504299968481064e-03
-1.833966188132762909e-02
-1.163374911993741989e-02
-1.724272221326828003e-02
1.266564242541790009e-02
-1.784201152622699738e-02
-2.305532246828079224e-02
4.412151128053665161e-02
1.034859661012887955e-02
-1.825432665646076202e-02
4.010394960641860962e-02
2.147015370428562164e-02
8.668508380651473999e-03
2.604844630695879459e-04
3.497457876801490784e-02
2.939427038654685020e-03
8.402040600776672363e-02
5.829454213380813599e-02
8.923600614070892334e-02
5.901150405406951904e-02
7.161002606153488159e-02
4.705575108528137207e-02
9.331777691841125488e-02
2.765736915171146393e-02
1.103865653276443481e-01
9.892725199460983276e-02
2.737116627395153046e-02
8.462291210889816284e-02
2.758070267736911774e-02
5.643878504633903503e-02
1.358929928392171860e-02
1.511924527585506439e-02
1.212759763002395630e-01
2.557792328298091888e-02
1.246592029929161072e-01
2.037719823420047760e-02
6.029407307505607605e-02
7.412852346897125244e-02
1.240032389760017395e-01
3.924341872334480286e-02
9.205691516399383545e-02
9.182649105787277222e-02
1.282105743885040283e-01
1.026224046945571899e-01
1.083550602197647095e-01
3.417427092790603638e-02
2.785296738147735596e-02
1.346267759799957275e-01
3.258506208658218384e-02
7.431059330701828003e-02
8.133820444345474243e-02
1.584277004003524780e-01
8.968245983123779297e-02
3.876248002052307129e-02
5.964550748467445374e-02
1.072030737996101379e-01
1.020697206258773804e-01
-5.620730668306350708e-02
-1.174959838390350342e-01
-6.996502727270126343e-02
-1.559944599866867065e-01
-6.829244643449783325e-02
-6.686437129974365234e-02
-5.639779195189476013e-02
-1.325487792491912842e-01
-1.114451363682746887e-01
-7.720991969108581543e-02
-1.330117136240005493e-01
-1.347730010747909546e-01
-1.422983407974243164e-01
-7.542543113231658936e-02
-4.263657703995704651e-02
-6.681764870882034302e-02
-7.636977732181549072e-02
-5.538311973214149475e-02
-1.135410666465759277e-01
-6.160947307944297791e-02
-8.135521411895751953e-02
-9.486384689807891846e-02
-7.260387763381004333e-03
-1.167616173624992371e-01
-5.905211344361305237e-02
-1.213696300983428955e-01
-6.340714544057846069e-02
-8.019598573446273804e-02
-2.779528312385082245e-02
-8.397816121578216553e-02
-5.429879296571016312e-03
-9.858071804046630859e-02
-1.348677929490804672e-02
-1.022074073553085327e-01
-1.550387311726808548e-02
-7.007450610399246216e-02
-2.213846705853939056e-02
-3.150527924299240112e-02
2.155244164168834686e-02
9.450415382161736488e-04
-7.812114804983139038e-02
-2.283655479550361633e-02
-7.578898221254348755e-02
2.140912413597106934e-02
-6.885252427309751511e-03
-2.613185346126556396e-02
-3.825506567955017090e-02
1.755245961248874664e-02
-4.324657097458839417e-02
2.313472889363765717e-02
1.867634430527687073e-02
1.869279146194458008e-02
-4.200503462925553322e-05
-6.495995074510574341e-02
5.071916803717613220e-02
-9.272598661482334137e-03
-6.179342046380043030e-03
5.772057920694351196e-03
5.691056326031684875e-02
4.795582592487335205e-02
1.343001611530780792e-03
2.381707541644573212e-02
-6.120502203702926636e-02
2.300759591162204742e-02
-2.797978557646274567e-02
5.262752622365951538e-02
-1.556757278740406036e-02
4.755683243274688721e-03
6.072906404733657837e-02
6.796956062316894531e-02
-3.309505060315132141e-02
-2.804967574775218964e-02
4.832333698868751526e-02
6.926709413528442383e-02
3.415807336568832397e-02
2.432077936828136444e-02
5.379027570597827435e-04
5.779368802905082703e-02
8.384843170642852783e-02
-1.292067766189575195e-02
4.755412414669990540e-02
