-2.480526221916079521e-03
8.647564798593521118e-02
3.538894280791282654e-02
2.598683163523674011e-02
4.761682078242301941e-02
-4.575563594698905945e-02
-1.756715588271617889e-02
4.246479365974664688e-03
1.729807071387767792e-02
-3.902680426836013794e-02
4.906044155359268188e-02
-1.913205720484256744e-02
8.839759044349193573e-03
2.348784729838371277e-02
-2.477263100445270538e-02
-1.630292087793350220e-02
-1.692613214254379272e-02
4.560737684369087219e-02
5.922595411539077759e-02
3.681489825248718262e-02
-2.076056599617004395e-02
-3.496342524886131287e-02
3.182135894894599915e-02
2.916547283530235291e-02
2.455225773155689240e-02
-6.015472486615180969e-02
4.400383681058883667e-02
1.861511357128620148e-02
7.526593655347824097e-02
7.579804211854934692e-02
9.663295000791549683e-03
-4.273559153079986572e-02
4.679829254746437073e-02
-4.309418797492980957e-02
3.394638746976852417e-02
-6.587006896734237671e-02
6.409039720892906189e-03
-2.534266933798789978e-02
-4.964286461472511292e-03
3.436348587274551392e-02
-5.768854916095733643e-02
-6.522367894649505615e-02
3.981247544288635254e-02
3.021381609141826630e-02
-8.169364300556480885e-04
-3.059405833482742310e-03
2.896471507847309113e-02
1.858755014836788177e-02
6.283757090568542480e-02
-1.612038165330886841e-02
-1.104762777686119080e-02
-3.346361219882965088e-02
-1.553762517869472504e-02
5.394711717963218689e-02
1.000209301710128784e-01
7.139597833156585693e-02
3.103391267359256744e-02
1.006265133619308472e-01
3.435551375150680542e-02
9.106210200116038322e-04
8.943958207964897156e-03
2.540937252342700958e-02
6.918568164110183716e-02
9.994507580995559692e-02
1.259524673223495483e-01
6.913834810256958008e-02
1.087842434644699097e-01
1.207419484853744507e-02
1.303492765873670578e-02
2.459376864135265350e-02
-8.621312677860260010e-03
1.358103472739458084e-02
3.674022480845451355e-02
9.340716153383255005e-02
9.091440588235855103e-02
5.754558742046356201e-02
1.146201230585575104e-02
1.177365407347679138e-01
4.366829618811607361e-02
9.842044860124588013e-02
1.167765557765960693e-01
7.671169936656951904e-02
1.215572506189346313e-01
1.556663513183593750e-01
1.464251279830932617e-01
3.273751214146614075e-02
6.817183643579483032e-02
-4.757981002330780029e-02
-6.192466616630554199e-02
1.296847965568304062e-02
8.989709615707397461e-02
1.732935309410095215e-01
1.041045561432838440e-01
3.791064023971557617e-02
8.268492668867111206e-02
5.950745195150375366e-02
-7.597427349537611008e-03
-7.237293571233749390e-02
-5.236038565635681152e-02
5.433506891131401062e-02
1.471073925495147705e-01
9.236616641283035278e-02
6.844808906316757202e-02
5.230423435568809509e-02
1.712718047201633453e-02
-6.003971025347709656e-02
1.483489759266376495e-02
-1.460672821849584579e-02
3.646898642182350159e-02
1.401761472225189209e-01
9.960306435823440552e-02
3.537261113524436951e-02
-3.909045085310935974e-02
-2.137725427746772766e-02
-8.962314575910568237e-02
-8.779224008321762085e-03
-1.463843323290348053e-02
4.833351820707321167e-02
1.417698711156845093e-01
5.020927637815475464e-02
5.251337960362434387e-02
-4.494179040193557739e-02
-2.201199159026145935e-02
-1.002953387796878815e-02
-2.615791000425815582e-02
-7.077838480472564697e-02
5.341756343841552734e-02
1.485308557748794556e-01
1.383029818534851074e-01
7.407222688198089600e-02
-7.514388300478458405e-03
1.682966202497482300e-02
-1.273917686194181442e-02
2.879650518298149109e-02
-3.378460928797721863e-02
1.121473833918571472e-01
1.293865144252777100e-01
1.512443274259567261e-01
8.410624414682388306e-02
9.914646297693252563e-02
6.055577471852302551e-02
-3.728406131267547607e-02
-5.351992323994636536e-03
-7.303498685359954834e-02
8.190621435642242432e-02
1.610334813594818115e-01
1.549901664257049561e-01
1.026928573846817017e-01
1.278607398271560669e-01
1.592607982456684113e-02
7.440197747200727463e-03
7.197433151304721832e-03
4.481671843677759171e-03
1.508671343326568604e-01
2.304133027791976929e-01
1.383849382400512695e-01
1.001013591885566711e-01
9.526255726814270020e-02
1.214638575911521912e-01
7.253759354352951050e-02
7.477153837680816650e-02
3.945210203528404236e-02
2.834091484546661377e-01
2.961231172084808350e-01
2.986098825931549072e-01
2.058317512273788452e-01
1.109872609376907349e-01
1.032711490988731384e-01
1.240953877568244934e-01
1.059162244200706482e-01
-6.721125915646553040e-03
2.186447232961654663e-01
2.084777504205703735e-01
1.963887363672256470e-01
1.601600497961044312e-01
9.663251787424087524e-02
1.378900110721588135e-01
5.118193849921226501e-02
5.038368329405784607e-02
-8.084122091531753540e-02
8.163638412952423096e-02
1.585618853569030762e-01
1.996852755546569824e-01
1.414711028337478638e-01
7.527445256710052490e-02
-3.028644621372222900e-02
5.639131180942058563e-03
-7.304344326257705688e-02
-1.214912533760070801e-01
7.373880594968795776e-02
6.288769096136093140e-02
1.605025231838226318e-01
3.151766955852508545e-02
3.995781764388084412e-02
2.543248981237411499e-02
-9.171199053525924683e-02
-4.371920228004455566e-02
-1.196802332997322083e-01
4.638173803687095642e-02
1.169491782784461975e-01
2.932751737534999847e-02
-5.630586761981248856e-03
2.533148787915706635e-02
-5.403085052967071533e-02
-9.911199659109115601e-02
-7.717787474393844604e-02
-1.894114017486572266e-01
-5.088899750262498856e-03
8.593689650297164917e-02
7.071653008460998535e-02
-2.921838499605655670e-02
-1.956220529973506927e-02
-1.227016299962997437e-01
-1.411776989698410034e-01
-9.787712246179580688e-02
-1.870400160551071167e-01
-4.389953240752220154e-02
3.761179372668266296e-02
5.402656272053718567e-02
-3.372227773070335388e-02
-8.360964804887771606e-02
-1.392101347446441650e-01
-9.404134005308151245e-02
-1.862041354179382324e-01
-1.709789931774139404e-01
-2.704326622188091278e-02
-1.123950630426406860e-02
1.675682887434959412e-02
-4.234338924288749695e-02
-7.186763733625411987e-02
-7.553671300411224365e-02
-1.628053933382034302e-01
-2.000798732042312622e-01
-1.282836347818374634e-01
-2.284220885485410690e-03
4.678111523389816284e-03
3.978268802165985107e-02
6.202227249741554260e-02
-8.514355868101119995e-02
-1.016457155346870422e-01
-1.488338708877563477e-01
-1.436682939529418945e-01
-1.735091209411621094e-01
