-1.243760585784912109e-01
-2.803307399153709412e-02
-1.189035698771476746e-01
-2.007011324167251587e-03
-9.632112085819244385e-02
-7.291904836893081665e-02
-6.323799490928649902e-02
-1.049363836646080017e-01
-1.365483459085226059e-02
-1.078475415706634521e-01
-6.365021318197250366e-02
-1.029411256313323975e-01
-2.853977866470813751e-02
2.131867595016956329e-02
1.568325981497764587e-02
-4.684499278664588928e-02
-8.788444101810455322e-02
1.021390594542026520e-02
-3.897750005125999451e-02
5.170669872313737869e-03
-6.560858339071273804e-02
-5.183723568916320801e-02
-6.229995563626289368e-02
4.085538163781166077e-02
-1.728876121342182159e-02
-7.674371451139450073e-02
-2.312861569225788116e-02
-4.815141111612319946e-02
-1.085301395505666733e-02
1.430496945977210999e-02
-2.914260327816009521e-02
2.443501912057399750e-02
-3.673034906387329102e-02
7.280966266989707947e-03
-6.927770376205444336e-02
4.790158011019229889e-03
6.750275194644927979e-02
7.078767567873001099e-02
4.262112081050872803e-02
7.481531053781509399e-02
9.781873226165771484e-02
4.441335424780845642e-02
3.958033770322799683e-02
2.555878832936286926e-02
7.681792229413986206e-02
7.032252103090286255e-02
-6.069463677704334259e-03
2.946472354233264923e-02
7.478930987417697906e-03
7.051157206296920776e-02
-2.181559801101684570e-02
5.650833249092102051e-02
1.541671715676784515e-02
5.889904871582984924e-02
4.722079634666442871e-02
3.241732483729720116e-03
7.570256292819976807e-02
7.660081982612609863e-02
2.457629423588514328e-03
1.145852133631706238e-01
9.982798993587493896e-02
8.317186683416366577e-02
3.764574229717254639e-02
6.242563948035240173e-02
1.079098414629697800e-02
2.865529060363769531e-02
8.560995012521743774e-02
9.030143171548843384e-02
8.007746189832687378e-02
-1.365105435252189636e-02
9.747539460659027100e-02
1.643764041364192963e-02
1.009901911020278931e-01
1.015011891722679138e-01
7.460228353738784790e-02
1.177812591195106506e-01
9.611605107784271240e-02
8.870118111371994019e-02
2.038315869867801666e-02
9.685529023408889771e-02
5.324837937951087952e-02
-5.455707013607025146e-02
-9.624791890382766724e-02
-2.802811935544013977e-02
-5.666119046509265900e-03
-9.984281659126281738e-02
-9.958805516362190247e-03
-1.142285540699958801e-01
-1.197295635938644409e-01
-1.266315728425979614e-01
-5.258647352457046509e-02
-1.079453155398368835e-01
-7.412566989660263062e-02
-7.079745829105377197e-02
-6.520967930555343628e-03
-9.815970063209533691e-02
-7.358287274837493896e-02
-4.331294819712638855e-02
-3.471465036273002625e-02
-7.199017703533172607e-02
-8.576885797083377838e-03
-6.531153619289398193e-02
-6.468145549297332764e-02
-4.228943027555942535e-03
-4.144834354519844055e-02
2.573112398386001587e-02
-5.667740106582641602e-02
-1.270587649196386337e-02
1.403663121163845062e-02
-5.892600119113922119e-02
5.519503727555274963e-02
-1.168596930801868439e-02
1.302508357912302017e-02
-2.195420302450656891e-02
-1.279379706829786301e-02
-8.465545251965522766e-03
-3.114417940378189087e-02
5.042780190706253052e-02
3.813324868679046631e-02
1.085501238703727722e-01
9.862500429153442383e-02
1.202839612960815430e-01
6.853728741407394409e-02
7.752453535795211792e-02
1.127507165074348450e-01
1.206760406494140625e-01
-1.692755147814750671e-02
2.822257950901985168e-02
-1.155881118029356003e-02
6.111648678779602051e-02
4.522567614912986755e-02
1.099598780274391174e-01
5.924644693732261658e-02
5.910022556781768799e-02
2.939544618129730225e-02
-7.814320735633373260e-03
6.144044548273086548e-02
2.687537856400012970e-02
3.695850446820259094e-02
1.204177960753440857e-01
2.795123122632503510e-02
2.628039754927158356e-02
1.118899434804916382e-01
1.034725755453109741e-01
2.722203731536865234e-02
8.947609364986419678e-02
1.075237467885017395e-01
2.315043658018112183e-02
9.892386198043823242e-02
8.525723963975906372e-02
5.793671682476997375e-02
1.258434653282165527e-01
3.394038602709770203e-02
1.203625425696372986e-01
5.421716719865798950e-02
3.425117954611778259e-02
1.355905234813690186e-01
6.713551282882690430e-02
8.285255730152130127e-02
9.986827522516250610e-02
1.216438319534063339e-02
2.059241384267807007e-02
-7.589788734912872314e-02
-3.955888003110885620e-02
-1.018705740571022034e-01
-4.824078828096389771e-02
-6.736831367015838623e-02
-7.414769381284713745e-02
-1.335785090923309326e-01
-2.886690758168697357e-02
-5.790637433528900146e-02
-7.518209517002105713e-02
-3.731568157672882080e-02
-1.378163397312164307e-01
-6.736597418785095215e-02
-1.077851653099060059e-01
-8.781144022941589355e-02
-6.075121089816093445e-02
-4.885155707597732544e-02
-5.797576159238815308e-02
-1.190154254436492920e-01
-1.070685535669326782e-01
-6.596068292856216431e-02
-7.681241631507873535e-02
-1.171558722853660583e-01
-5.520523060113191605e-03
-6.102554127573966980e-02
-1.088584885001182556e-01
-2.919466048479080200e-02
-2.131221443414688110e-02
-7.943388819694519043e-02
-1.654085144400596619e-02
-8.811445534229278564e-02
-2.584048546850681305e-02
6.564917508512735367e-03
-1.169591397047042847e-02
-1.506486348807811737e-02
-5.171813815832138062e-02
-7.399230729788541794e-03
3.632569452747702599e-03
-4.581455141305923462e-03
-3.437484428286552429e-02
-1.472321711480617523e-02
-5.736209824681282043e-02
-6.795114278793334961e-02
-8.241363614797592163e-02
-6.508800387382507324e-02
-4.922652617096900940e-02
5.344916135072708130e-02
3.395777195692062378e-03
-6.970340013504028320e-02
-4.725782200694084167e-02
-7.340053096413612366e-03
-4.285960644483566284e-02
-3.439249843358993530e-02
-2.993429079651832581e-02
-1.097846496850252151e-02
1.399797759950160980e-02
9.872717782855033875e-03
4.506478831171989441e-02
4.191873222589492798e-02
4.413915425539016724e-02
-1.472670491784811020e-02
-3.608104214072227478e-02
1.202509505674242973e-03
-1.660522073507308960e-02
5.495468154549598694e-02
2.116422541439533234e-02
5.632482934743165970e-03
-3.172444924712181091e-02
4.179896414279937744e-02
3.873553127050399780e-02
6.298866122961044312e-02
-1.312938053160905838e-02
6.764047592878341675e-02
5.302217230200767517e-02
8.803515695035457611e-03
6.941322702914476395e-03
7.692945003509521484e-02
-5.749447271227836609e-03
6.687286496162414551e-02
3.999806195497512817e-02
4.196354374289512634e-02
