7.788784801959991455e-02
-9.992433711886405945e-03
-5.941557232290506363e-03
5.214106291532516479e-02
4.734617844223976135e-02
4.853494837880134583e-02
-4.170536063611507416e-03
4.862152040004730225e-02
-4.288833215832710266e-02
3.105102479457855225e-02
7.535184174776077271e-02
6.314101815223693848e-02
7.323189079761505127e-02
8.447430282831192017e-02
4.429080709815025330e-02
3.103189729154109955e-02
9.450346697121858597e-04
-3.570761531591415405e-02
-1.581078954041004181e-02
8.755036443471908569e-02
2.364166453480720520e-02
7.113145291805267334e-02
1.057854369282722473e-01
4.697915539145469666e-02
2.721864730119705200e-04
-2.272973209619522095e-02
-2.125224843621253967e-02
3.333320096135139465e-02
-4.086934030055999756e-02
1.064602844417095184e-02
5.397000536322593689e-02
9.536520391702651978e-02
5.580353736877441406e-02
3.542311862111091614e-02
5.596078187227249146e-02
2.665960416197776794e-02
2.962158620357513428e-02
-1.206419616937637329e-02
-4.022344201803207397e-02
2.876915968954563141e-03
1.618935540318489075e-02
2.110600657761096954e-02
-5.875512957572937012e-03
2.176082879304885864e-02
3.181719034910202026e-02
-6.160897389054298401e-02
-1.017708778381347656e-01
-7.513692975044250488e-02
-6.598383188247680664e-02
1.172536145895719528e-02
-8.193296194076538086e-02
-6.480916589498519897e-02
-7.761764526367187500e-02
-1.028055995702743530e-01
-4.513778910040855408e-02
-1.119743064045906067e-01
-9.171737730503082275e-02
-1.286498159170150757e-01
-8.221528679132461548e-02
-8.383950591087341309e-02
-1.112103387713432312e-01
-1.332296431064605713e-01
-8.510483801364898682e-02
-1.173401921987533569e-01
-1.453742831945419312e-01
-1.590480357408523560e-01
-1.213240325450897217e-01
-1.621346920728683472e-01
-6.381508708000183105e-02
-1.584047377109527588e-01
-1.499187201261520386e-01
-1.087748557329177856e-01
-9.407551586627960205e-02
-1.208814680576324463e-01
-7.051542401313781738e-02
-1.471595317125320435e-01
-8.065927028656005859e-02
-1.182024404406547546e-01
-1.796873211860656738e-01
-1.480122953653335571e-01
-9.768696874380111694e-02
1.366272219456732273e-03
4.499541968107223511e-02
5.268904939293861389e-02
-8.684266358613967896e-03
1.162430644035339355e-02
1.892271637916564941e-02
-2.413536980748176575e-02
1.303295488469302654e-03
-3.618799895048141479e-02
1.884226873517036438e-02
5.114309862256050110e-02
2.587432414293289185e-02
-8.923999033868312836e-03
3.487941867206245661e-04
1.499789487570524216e-02
4.282585904002189636e-02
1.644782349467277527e-02
1.664435863494873047e-02
4.746708646416664124e-02
2.500179037451744080e-02
2.315011993050575256e-02
1.322397030889987946e-02
7.042598724365234375e-02
5.705343186855316162e-02
-3.644824773073196411e-02
-2.735110744833946228e-02
-5.765644600614905357e-04
8.616073988378047943e-03
2.289796434342861176e-02
-3.655941039323806763e-02
-4.879449307918548584e-02
2.572024613618850708e-02
1.964574307203292847e-02
3.596939891576766968e-02
-7.368320133537054062e-03
4.659091308712959290e-02
-4.402938298881053925e-03
4.426542297005653381e-02
-3.868131339550018311e-02
4.264082387089729309e-02
3.716980293393135071e-02
-9.138885885477066040e-03
4.429667815566062927e-02
-5.712298676371574402e-02
5.143798515200614929e-02
-2.909235469996929169e-02
-2.693672291934490204e-02
1.830874360166490078e-03
-1.265700161457061768e-02
2.043660171329975128e-02
2.382167614996433258e-02
-7.876395434141159058e-02
1.011356152594089508e-02
-4.273018985986709595e-02
-7.550260424613952637e-02
-5.104539170861244202e-02
-1.103442627936601639e-02
-8.970898389816284180e-02
-9.128937870264053345e-02
-1.852370426058769226e-02
-9.598582237958908081e-02
-4.321698099374771118e-02
-6.995797157287597656e-02
-6.376160681247711182e-02
-3.490262851119041443e-02
-1.141599863767623901e-01
-1.082490235567092896e-01
-4.046247527003288269e-02
-7.669354975223541260e-02
-9.015181660652160645e-02
-1.329485774040222168e-01
-1.661750115454196930e-02
-9.628264605998992920e-02
-1.052057221531867981e-01
-1.171789243817329407e-01
-9.873889386653900146e-02
-4.935732111334800720e-02
-8.916001766920089722e-02
-3.499674797058105469e-02
-8.772376179695129395e-02
-8.707207441329956055e-02
8.893283456563949585e-02
4.744688794016838074e-02
3.772012144327163696e-02
7.627598941326141357e-02
1.083354055881500244e-01
7.175389677286148071e-02
9.596715867519378662e-02
9.717247635126113892e-02
8.111868053674697876e-02
8.654369413852691650e-02
8.788064122200012207e-02
8.064831048250198364e-02
1.320215165615081787e-01
1.372849196195602417e-01
9.525672346353530884e-02
6.029908731579780579e-02
1.168413087725639343e-01
7.513242773711681366e-03
1.078808605670928955e-01
9.715794771909713745e-02
1.119897216558456421e-01
7.348513603210449219e-02
3.387811779975891113e-02
1.246622726321220398e-01
4.212268069386482239e-02
8.052420616149902344e-02
9.377773106098175049e-02
-1.162082189694046974e-04
6.696528941392898560e-02
4.492433369159698486e-02
1.198683306574821472e-01
4.002781584858894348e-02
1.207771524786949158e-01
1.172904670238494873e-01
1.077654436230659485e-01
1.280141472816467285e-01
6.767017394304275513e-02
1.696316408924758434e-03
1.093804165720939636e-01
7.502636313438415527e-02
7.792900502681732178e-02
1.704005897045135498e-02
6.130512803792953491e-02
4.373054951429367065e-02
1.376550793647766113e-01
7.548261433839797974e-02
7.492586970329284668e-02
7.349683344364166260e-02
-4.163792356848716736e-03
1.585872657597064972e-02
1.931127347052097321e-02
1.846480183303356171e-02
9.886272251605987549e-02
7.716618478298187256e-02
5.437522381544113159e-02
-6.876253522932529449e-03
-6.099756807088851929e-02
-1.942383497953414917e-02
4.971678555011749268e-02
4.580649361014366150e-02
3.186295926570892334e-02
4.644786473363637924e-03
-2.465496957302093506e-02
-5.212444439530372620e-02
7.995720952749252319e-03
-5.362038686871528625e-02
3.677402855828404427e-03
-4.952308256179094315e-03
-4.263273254036903381e-02
3.088861890137195587e-02
-1.263806130737066269e-02
2.067829668521881104e-02
-5.756032466888427734e-02
-1.012410074472427368e-01
-3.349641710519790649e-02
-2.477947063744068146e-02
-7.096333056688308716e-02
5.688047036528587341e-03
-8.071731775999069214e-02
-6.859239935874938965e-02
-2.985592745244503021e-02
