-1.148602813482284546e-01
-1.508181542158126831e-01
-1.183875501155853271e-01
-1.609907299280166626e-01
-1.556207984685897827e-01
-5.637060478329658508e-02
-1.904925256967544556e-01
-1.892852932214736938e-01
-1.528413891792297363e-01
-1.020778119564056396e-01
-8.580008149147033691e-02
-1.257137656211853027e-01
-8.910524845123291016e-02
-8.399762213230133057e-02
-3.111106529831886292e-02
-4.194270819425582886e-02
-7.379892468452453613e-02
-9.411143511533737183e-02
-2.846465818583965302e-02
-1.185800358653068542e-01
-3.052141144871711731e-02
-8.181997388601303101e-02
1.876887306571006775e-02
-1.014176830649375916e-01
-3.138994798064231873e-02
-1.084209904074668884e-01
-1.276656426489353180e-02
-3.080668114125728607e-02
2.382920868694782257e-02
-6.860696524381637573e-02
3.517820313572883606e-02
-3.459982946515083313e-02
-3.741715848445892334e-02
1.119884010404348373e-02
-2.589703164994716644e-02
-6.156466901302337646e-02
-5.862833559513092041e-02
-1.081126369535923004e-02
3.346574679017066956e-02
8.499123901128768921e-02
8.871738612651824951e-02
3.255403041839599609e-02
-1.694591157138347626e-02
-3.641413897275924683e-02
8.169794082641601562e-02
-2.203510515391826630e-02
8.864544332027435303e-03
-2.547159790992736816e-02
-6.557790562510490417e-03
6.358229368925094604e-02
2.794002369046211243e-02
4.481865465641021729e-02
3.543799370527267456e-02
4.113401845097541809e-02
9.144186042249202728e-03
2.491505444049835205e-02
5.999811366200447083e-02
8.975238353013992310e-02
1.102329716086387634e-01
-2.294748323038220406e-03
-9.531319141387939453e-03
3.286839276552200317e-02
3.609246760606765747e-02
5.890087783336639404e-02
9.023108333349227905e-02
5.207897722721099854e-02
2.417081705061718822e-04
5.024703592061996460e-02
9.348046034574508667e-02
6.821734458208084106e-02
-8.172559551894664764e-03
3.464837372303009033e-02
-4.655154794454574585e-02
-4.474711604416370392e-03
7.274221628904342651e-02
1.019000541418790817e-02
8.791939914226531982e-02
-1.187328714877367020e-02
8.590216934680938721e-02
4.960602894425392151e-02
5.276607722043991089e-02
-5.628095194697380066e-02
-6.042874231934547424e-02
-8.930672705173492432e-02
-8.333829790353775024e-02
-8.224070072174072266e-02
6.843881565146148205e-04
-8.562821894884109497e-02
-6.256403774023056030e-02
-1.165447533130645752e-01
-3.628247976303100586e-02
-6.475939601659774780e-02
-8.604215085506439209e-02
-1.737435348331928253e-02
-7.378176599740982056e-02
-3.221644461154937744e-02
-8.655987679958343506e-02
6.290692836046218872e-03
-7.675603032112121582e-02
-2.079948782920837402e-02
1.214063074439764023e-02
-6.306235492229461670e-02
4.038815572857856750e-02
6.402295827865600586e-02
-3.730187192559242249e-02
1.347654499113559723e-03
1.825445517897605896e-02
6.222872808575630188e-02
4.662150517106056213e-02
-4.779456183314323425e-02
-3.973956406116485596e-02
-3.117702342569828033e-02
1.417041383683681488e-02
2.266360260546207428e-02
7.521567866206169128e-03
7.634822279214859009e-02
2.907335758209228516e-03
-1.697110384702682495e-02
-1.215026900172233582e-02
4.434825852513313293e-03
1.193736046552658081e-01
8.343584090471267700e-02
5.775454267859458923e-02
4.607428982853889465e-02
2.128262817859649658e-02
6.552969664335250854e-02
6.592459231615066528e-02
7.303977757692337036e-02
7.696141302585601807e-02
5.067342519760131836e-02
3.249160572886466980e-02
2.429490350186824799e-02
1.215004026889801025e-01
6.176357623189687729e-03
9.638083726167678833e-02
2.310045622289180756e-02
8.543771505355834961e-02
6.359163671731948853e-02
2.442685887217521667e-02
7.337810471653938293e-03
6.276051700115203857e-02
5.415463354438543320e-03
4.647839814424514771e-02
8.156660199165344238e-02
6.081267073750495911e-02
1.111668720841407776e-02
-1.308366004377603531e-02
-1.183352805674076080e-02
-1.495914184488356113e-03
6.115312129259109497e-02
6.641966756433248520e-03
4.280379414558410645e-02
1.348015479743480682e-02
-1.771071180701255798e-02
6.801982223987579346e-02
6.376195698976516724e-02
8.425614982843399048e-02
1.153800934553146362e-01
-1.986451679840683937e-03
-1.833263551816344261e-03
-2.589987404644489288e-02
6.412081420421600342e-02
-4.282749816775321960e-02
-2.872648276388645172e-02
-1.236542537808418274e-01
-1.076270043849945068e-01
-4.858023021370172501e-03
-1.234354525804519653e-01
-1.182261034846305847e-01
-4.800276458263397217e-02
-1.186142116785049438e-01
-8.242926001548767090e-02
-3.781047463417053223e-02
-1.246445626020431519e-02
-6.891518086194992065e-02
-1.131987869739532471e-01
-2.372284047305583954e-02
2.655806951224803925e-03
-1.042411923408508301e-01
-4.952268674969673157e-02
-9.165631234645843506e-02
-7.991784065961837769e-02
-2.852529101073741913e-02
-1.801261305809020996e-02
-1.575512997806072235e-02
-1.058369502425193787e-01
-6.085731461644172668e-02
-1.108452212065458298e-02
-3.237339481711387634e-02
-3.984284773468971252e-02
-5.779045820236206055e-02
3.031351603567600250e-02
-7.920915633440017700e-02
-6.986907869577407837e-02
2.660284377634525299e-02
-5.816761404275894165e-02
2.687226794660091400e-02
-3.312622755765914917e-02
7.354365661740303040e-03
-2.341943234205245972e-02
5.393774807453155518e-02
5.031947419047355652e-02
1.964149437844753265e-02
1.735036075115203857e-02
-7.499752566218376160e-03
-1.002008188515901566e-02
1.635211892426013947e-02
5.310811102390289307e-02
8.095328696072101593e-03
5.540177971124649048e-02
2.870303392410278320e-02
3.354732692241668701e-02
-8.654351346194744110e-03
5.694613978266716003e-02
-2.239591628313064575e-02
6.873294711112976074e-02
7.763079553842544556e-02
5.477500334382057190e-02
8.070544898509979248e-02
5.814834311604499817e-02
3.682131320238113403e-02
5.117954220622777939e-03
-1.241682376712560654e-02
8.362155407667160034e-02
9.975035488605499268e-02
3.315464034676551819e-02
9.276611357927322388e-02
4.734435677528381348e-02
1.300941258668899536e-01
6.192548200488090515e-02
1.316178143024444580e-01
1.169067621231079102e-01
1.030790582299232483e-01
1.165914535522460938e-01
1.238494813442230225e-01
1.223274841904640198e-01
4.480091482400894165e-02
9.011644870042800903e-02
1.042766571044921875e-01
1.344362795352935791e-01
6.707473844289779663e-02
1.120748221874237061e-01
1.255938559770584106e-01
